3.62160 8.66610 -2.80730 -.44699 
7.48760 6.02780 -.88310 -.34054 
10.94420 15.55060 -4.89430 -3.93494 
15.31260 25.22240 -8.85490 -7.09744 
17.40480 18.41240 -.39130 -7.69960 
20.60800 24.17120 -1.14475 -8.31211 
22.14360 33.34840 -3.41655 -9.04746 
23.36830 42.12630 -5.63005 -9.85393 
27.35820 39.41970 -3.23545 -8.99102 
25.78140 50.26270 -.68925 -11.92722 
29.18540 58.98880 -3.68075 -12.49964 
33.86190 55.59930 -.19115 -11.02254 
36.53380 58.66390 .18043 -10.43635 
37.33735 61.51120 4.52433 -9.83465 
38.78525 56.63180 12.86713 -11.94325 
44.02755 67.65900 8.51413 -16.04455 
49.81425 75.54920 5.89453 -16.53163 
50.14345 71.09400 10.46633 -17.52043 
54.07965 81.25620 6.64283 -21.53763 
55.01549 90.14170 4.95973 -23.19753 
59.44929 100.02870 .28023 -26.94583 
60.15499 94.53060 8.61703 -29.81733 
61.29819 90.78930 14.19473 -30.45311 
60.91605 99.18020 16.35713 -34.19361 
62.40445 102.80760 19.66513 -33.70440 
66.70135 110.42460 17.27773 -34.66604 
65.73624 119.83570 19.00823 -39.52894 
68.17534 126.27740 18.20080 -40.22033 
70.86344 132.29690 17.73439 -40.91301 
74.49234 133.11012 19.36209 -40.13674 
79.06024 136.30302 17.25659 -39.84021 
78.85404 145.52372 13.55219 -46.65051 
81.71014 152.44132 12.75847 -46.16648 
80.92324 162.00762 8.97177 -53.66988 
83.00754 168.63342 9.45559 -55.88328 
82.22064 178.19972 5.66889 -63.38668 
86.13084 184.26472 3.21549 -64.06902 
87.76574 187.55072 6.09079 -63.98197 
92.08964 182.66722 9.52639 -64.55957 
97.35164 186.65062 7.96919 -63.54927 
100.49684 192.47562 7.45480 -65.04367 
103.04584 198.62552 6.29430 -66.28077 
107.97224 204.12152 3.81690 -66.78725 
112.79874 204.92439 5.45400 -65.59975 
118.60574 209.93409 3.21560 -65.16097 
121.49374 210.38105 7.80630 -65.40495 
121.99039 215.90805 9.58480 -65.87651 
124.52709 218.50705 11.67860 -65.67566 
129.13249 214.43055 14.43730 -65.35585 
131.55599 223.96375 11.35840 -68.13045 
131.67925 232.94855 10.42330 -70.56365 
135.63215 230.59375 12.80250 -70.08091 
140.35025 240.60905 8.85390 -73.93911 
144.51565 237.15955 12.49690 -72.85121 
146.82225 240.69595 13.07241 -72.43183 
146.87142 246.83965 14.85521 -73.15296 
147.11977 254.48355 15.84371 -74.02667 
148.25147 258.44825 19.24161 -73.18316 
151.05477 267.53445 15.87481 -74.20556 
155.52297 269.82515 16.83247 -73.37498 
160.54147 278.42295 13.89497 -74.65598 
162.40787 286.19925 13.65648 -77.61938 
165.65287 292.82925 13.02213 -76.75001 
169.68247 295.50485 13.82898 -76.03322 
168.55117 297.40855 21.36288 -75.01122 
169.42720 304.22265 22.20486 -75.18278 
173.54690 301.42705 24.27556 -74.50866 
177.34960 302.24234 26.37966 -73.48416 
181.41280 305.82634 27.10511 -73.08935 
185.71920 314.03314 24.32271 -74.52295 
188.16780 307.71564 32.28591 -74.31693 
191.43960 309.49934 34.40201 -73.70359 
190.79488 304.89314 42.74901 -76.41349 
193.74918 305.96914 43.39478 -75.51955 
195.91078 299.08874 51.54648 -75.60059 
199.73078 310.01664 47.53528 -80.62899 
196.98888 321.42044 50.07468 -86.20829 
200.35578 316.23484 53.76818 -87.35099 
204.91548 313.81374 56.40948 -85.73419 
210.02838 313.31503 57.03811 -84.61529 
213.36808 308.70053 61.02041 -84.85280 
217.57078 308.92814 61.98149 -83.87998 
221.11458 310.16764 63.97849 -81.72528 
224.22058 319.70904 59.72489 -85.72828 
227.13688 330.53964 56.38119 -89.85028 
231.12908 326.07204 60.11159 -89.95978 
235.34788 332.88824 58.83119 -89.19902 
237.12978 339.80584 57.55679 -90.77492 
241.02668 347.22214 55.73229 -90.63485 
243.13468 354.01764 55.56149 -90.14435 
246.03158 354.72532 57.85149 -88.27805 
249.49578 365.41312 54.44439 -92.38705 
253.56708 375.81542 50.27219 -97.14525 
252.10988 384.93682 52.01469 -102.26935 
250.60238 386.85922 59.16129 -101.37799 
249.68520 396.84762 60.34169 -106.60429 
247.34220 409.79922 63.67019 -112.54689 
251.12400 406.91462 65.92599 -112.70423 
255.79290 408.22442 65.98139 -110.79523 
259.25920 409.33562 67.72389 -109.45643 
262.52890 404.99422 71.41229 -109.75472 
267.65910 413.66452 68.52099 -111.26332 
268.09300 419.20402 70.55399 -111.66764 
267.05290 428.60272 71.41397 -117.00124 
271.21340 439.82232 67.80037 -121.08314 
276.65140 449.28922 62.85867 -125.00334 
281.68340 457.49182 60.23307 -126.03744 
286.92520 468.03062 56.11567 -130.31714 
286.71900 477.25132 52.41127 -137.12744 
288.81010 478.19490 56.96247 -135.89344 
292.98370 481.52850 55.53807 -135.28915 
296.90690 478.28180 58.99597 -134.45210 
297.42640 475.01850 62.08547 -135.43700 
301.28480 475.80275 63.18877 -133.73620 
304.91250 476.78565 63.87738 -133.10217 
309.45720 485.01305 61.46078 -134.68967 
307.69730 496.93415 64.13638 -138.01377 
312.76640 497.14728 64.33916 -136.80427 
315.25240 496.15195 69.67956 -136.95902 
317.67500 491.57675 75.62656 -136.74395 
321.62290 487.80445 78.50956 -136.72414 
323.88630 483.31825 82.16536 -137.33665 
325.24290 487.55405 84.29946 -137.01555 
330.28810 491.45045 82.86906 -136.15264 
333.83800 500.06695 79.58966 -137.35354 
334.01146 507.93645 79.85842 -141.14184 
338.20416 504.66905 82.44232 -140.92418 
339.32076 513.31865 81.47980 -142.73538 
340.34426 520.21965 79.47360 -145.44788 
338.54126 532.10145 81.51940 -150.72068 
338.65865 538.37755 79.96990 -153.19528 
339.22925 538.35275 81.21200 -153.75738 
343.28445 535.89445 83.49260 -152.72508 
341.58925 536.96015 92.32200 -151.77553 
343.46915 539.43085 94.81510 -151.39882 
347.05215 535.63375 98.25420 -151.52383 
347.24296 544.76345 94.52920 -157.34623 
350.90116 550.44985 92.81350 -157.58374 
350.76972 548.67235 101.14510 -157.23160 
353.16222 558.47035 98.10900 -160.05400 
354.80482 561.48525 98.33749 -160.20100 
354.10910 570.10175 100.17939 -164.52990 
352.35320 582.04765 103.27399 -169.42770 
351.09950 592.92795 105.20499 -173.75140 
354.35800 588.46655 109.00739 -173.90227 
356.18940 594.83375 108.97112 -173.85272 
358.92590 589.80125 115.63192 -174.43161 
359.85560 586.00415 120.27482 -174.72731 
363.82190 596.17255 116.16172 -179.33291 
361.48090 608.55095 116.86575 -186.91651 
359.62250 616.43695 115.20145 -188.75491 
363.76790 623.69395 113.28615 -189.61569 
367.78940 621.50255 115.75095 -188.47479 
365.69970 632.32905 118.11125 -191.89459 
364.91281 641.89535 114.32455 -199.39799 
369.08851 652.15685 110.46935 -203.70359 
369.92143 659.69725 111.11940 -204.62903 
374.72913 661.92995 110.85606 -203.07563 
380.03543 667.19835 107.96566 -203.60279 
382.59593 676.46665 104.37436 -204.95879 
384.70183 684.07125 103.89681 -206.80489 
386.87393 683.33251 109.36401 -207.52860 
391.16383 692.51391 104.75731 -211.85490 
394.67943 702.70301 100.48141 -216.83290 
395.36030 705.02891 105.38991 -216.28292 
401.45220 707.99621 104.06321 -214.82782 
400.15220 718.26401 101.11021 -220.69162 
402.57180 724.73051 100.35333 -220.46362 
403.67050 725.36991 106.34233 -221.04639 
408.31690 735.90251 101.75713 -225.25239 
407.95652 740.01831 104.87143 -225.62438 
409.31272 743.23191 109.21793 -224.83776 
409.88332 743.20711 110.46003 -225.39986 
407.23542 753.34451 109.12903 -230.87056 
410.35732 750.20751 111.05493 -231.24514 
415.85172 751.75531 111.09662 -229.31674 
414.51282 753.30731 118.17722 -228.28574 
412.17672 765.26771 121.26072 -233.72924 
414.43632 765.23459 125.99622 -234.00684 
414.90533 764.60138 133.38102 -233.64177 
417.63493 767.47148 133.89226 -233.13187 
419.68153 769.50148 136.06836 -233.21550 
418.35413 778.99948 138.50916 -238.48440 
422.24463 776.84738 141.13936 -237.37970 
426.24403 777.75165 142.30866 -235.69050 
428.63923 787.25995 139.13036 -238.69910 
431.90963 794.19205 138.08476 -238.46463 
430.51653 795.75845 145.62296 -237.68060 
432.15713 799.30725 147.01936 -238.04484 
434.93153 806.16485 145.95226 -237.96943 
437.36023 815.54695 142.70456 -239.42373 
441.57363 812.74095 144.71616 -238.74961 
443.22083 813.22308 149.46106 -237.52461 
445.28053 812.22982 154.67296 -237.81773 
446.29403 820.68492 153.00096 -239.89923 
450.86313 816.22972 156.17786 -239.89493 
451.43774 826.34022 154.48616 -244.28713 
452.01114 835.53402 153.57676 -246.15913 
456.02134 846.19082 149.43796 -251.22373 
460.16384 842.51162 153.26606 -249.59403 
462.36724 848.50632 153.79615 -248.74405 
466.11124 849.30091 154.75466 -247.73635 
469.14414 851.59571 156.86816 -247.38551 
472.91724 858.80301 155.18676 -248.33293 
476.07294 861.69381 155.78369 -247.53468 
481.06094 868.89901 152.49909 -248.69548 
483.54394 875.51451 151.70622 -249.60411 
485.13794 880.22001 153.08202 -249.52223 
485.12184 889.96841 153.23596 -251.13563 
488.97144 899.76231 149.08516 -255.59383 
489.90114 895.96521 153.72806 -255.88953 
494.83534 898.37591 153.55212 -254.26503 
500.22684 908.37051 149.74402 -257.62923 
504.63404 908.30015 151.78562 -256.49733 
509.90964 908.43878 151.90700 -255.35383 
513.34084 914.70248 149.95570 -255.71548 
517.39284 914.53693 150.40953 -255.20300 
518.75664 909.76103 158.82773 -257.08660 
519.65230 917.53733 156.08043 -259.02190 
521.57880 925.29303 155.91220 -262.09900 
521.78857 924.83157 163.63890 -261.18954 
525.85657 921.89527 165.83810 -260.68870 
528.73357 917.83537 169.46400 -261.01414 
529.05587 916.93729 177.55230 -260.32192 
527.75587 927.20509 174.59930 -266.18572 
529.09777 922.78299 182.68930 -267.92062 
529.53902 925.73169 187.01180 -267.20512 
532.10682 929.24529 187.62586 -267.61203 
536.24172 935.36419 185.19646 -267.80816 
538.17572 935.36418 190.01246 -268.14783 
540.68252 936.52298 193.93736 -268.02198 
542.82892 942.60248 193.35956 -270.25218 
542.88090 949.65458 191.30546 -273.40298 
544.15150 957.68958 191.10895 -275.59178 
545.29450 958.52349 196.56415 -276.16162 
547.58730 967.56209 193.32245 -277.46072 
549.96020 978.03469 190.31375 -280.66202 
550.98860 987.80169 188.94505 -282.44732 
551.26311 997.02029 185.65875 -287.29212 
555.51091 1004.71589 182.88915 -288.36882 
559.53241 1002.01549 185.38485 -288.00246 
564.56211 997.04509 188.88735 -288.23997 
566.15231 999.33989 192.12765 -288.05593 
568.27971 1004.53379 190.33055 -289.23223 
569.46081 1012.91849 188.27385 -290.13568 
571.04071 1008.21089 196.19245 -291.68438 
571.56021 1004.94759 199.28195 -292.66928 
575.29541 1014.53869 195.37875 -296.01798 
578.82111 1015.82159 197.30635 -294.21888 
583.27601 1018.31919 198.33765 -293.24994 
583.11493 1011.85679 206.69495 -294.77154 
587.33133 1021.31749 201.76615 -300.00814 
590.84653 1028.13989 201.09238 -300.47712 
592.54533 1031.04929 203.99678 -300.36679 
596.10473 1032.35709 205.28778 -298.71119 
599.10563 1038.16969 203.05718 -299.37672 
603.03503 1039.58089 204.86478 -298.47890 
604.05413 1041.91089 209.79818 -297.64961 
605.87463 1048.66709 209.80817 -297.25480 
610.86693 1056.53239 207.45667 -297.97464 
614.89983 1056.76414 208.34749 -296.79234 
615.56001 1067.15194 206.94459 -300.70744 
619.15821 1074.28264 205.64109 -300.49496 
617.29981 1082.16864 203.97679 -302.33336 
621.39701 1082.63836 205.64389 -301.41743 
624.72691 1083.55090 207.22449 -301.02391 
627.83571 1086.66310 208.03306 -300.59031 
623.54981 1095.18650 211.17226 -301.50670 
622.29701 1105.39010 213.35096 -307.11050 
622.81651 1102.12680 216.44046 -308.09540 
623.70523 1107.47170 218.48546 -308.28895 
627.25103 1116.84350 214.45036 -312.24535 
627.03442 1124.87640 216.33516 -316.13065 
629.75502 1133.95850 213.02406 -317.09876 
632.96012 1142.64740 210.12076 -317.88066 
635.65182 1153.46350 206.82076 -322.16946 
633.32762 1164.98110 208.64386 -327.54446 
636.04372 1160.78050 212.83526 -327.37465 
639.42852 1164.04790 213.74493 -327.12337 
642.23352 1164.62522 215.08733 -325.91007 
648.01582 1170.20402 212.67843 -325.96655 
651.91572 1171.93802 214.27953 -324.99890 
655.14512 1179.67712 213.90137 -327.53940 
657.33992 1181.05522 215.05957 -326.68166 
659.59252 1191.01882 211.88467 -329.67606 
661.50302 1199.88982 209.54607 -330.43210 
659.99752 1199.96016 216.41417 -330.93858 
660.58588 1210.73286 215.02577 -335.26618 
663.81618 1218.57126 211.49097 -336.48128 
666.66848 1227.58086 207.72997 -339.81838 
670.94568 1230.07636 208.21551 -339.45719 
672.45558 1230.11567 214.44871 -339.76065 
677.87438 1240.26137 210.36471 -343.45975 
678.42215 1250.63677 208.82121 -347.62305 
675.92685 1261.78397 210.75651 -351.08685 
680.56295 1259.12287 213.59231 -349.88775 
678.31025 1270.65497 216.18221 -353.16145 
682.10845 1281.07797 212.02201 -358.13425 
681.74566 1289.36747 210.10071 -361.46745 
682.61302 1294.93177 211.77721 -361.63514 
680.35072 1307.04947 212.06567 -369.39324 
681.61232 1311.47977 210.73217 -371.14494 
681.21416 1317.45787 212.12337 -372.30704 
685.60786 1317.81585 214.16497 -371.10664 
688.57736 1323.43805 214.44058 -372.26224 
689.88226 1323.28284 220.93168 -373.01570 
691.84696 1330.22114 221.50890 -372.35193 
692.43678 1337.64774 222.74420 -375.31143 
692.58461 1345.59374 223.81840 -378.65233 
696.80761 1346.72564 224.54042 -377.69115 
697.45056 1353.82744 224.88972 -378.10452 
699.39156 1354.29095 229.53692 -377.01662 
703.39626 1354.75032 230.89902 -375.39852 
707.17296 1364.52972 226.99152 -378.93082 
709.15476 1373.79182 223.47052 -380.80282 
712.95706 1369.92222 227.51452 -379.84939 
717.30536 1381.03012 223.42882 -384.10329 
718.45716 1382.41652 228.70152 -384.53865 
717.19956 1384.00572 235.70932 -384.11410 
719.15676 1378.89042 244.32202 -385.54380 
718.00706 1380.18582 252.02302 -384.91753 
722.84386 1390.19902 247.69912 -389.24513 
722.72190 1399.00582 248.64478 -393.47183 
724.66480 1405.40192 248.73703 -392.89081 
723.14260 1416.24282 251.51973 -396.98821 
721.84260 1426.51062 248.56673 -402.85201 
725.26720 1426.36369 249.37015 -402.56065 
727.81750 1421.41189 255.74305 -402.97661 
729.38660 1427.75839 255.56025 -405.38651 
730.69530 1432.68119 257.56155 -405.16627 
735.87290 1440.91279 254.31045 -406.73567 
738.10190 1450.54529 251.19815 -409.45207 
739.31570 1459.34389 249.03095 -410.19389 
739.69550 1460.05369 249.78815 -410.63829 
740.23700 1466.08559 251.47065 -411.09951 
744.28940 1471.76579 249.50135 -411.07323 
749.01790 1473.87229 249.21830 -409.51073 
752.45380 1474.53445 251.32240 -407.61853 
753.32196 1484.77735 249.83120 -411.62673 
756.99216 1487.77155 250.68261 -411.31985 
758.32706 1493.89045 251.14758 -410.82159 
761.51576 1490.47615 253.92178 -411.02419 
763.96846 1493.44145 254.12199 -411.08067 
767.88056 1496.41495 255.05051 -410.47509 
771.81696 1507.00345 251.32551 -414.78839 
775.75836 1503.71325 254.49291 -413.70179 
779.45056 1499.75475 258.83681 -412.35009 
780.22180 1508.84095 257.60871 -413.84969 
781.82380 1514.96605 258.13795 -413.37083 
784.49200 1525.18205 254.69655 -417.37773 
788.87680 1522.10915 257.73885 -416.10363 
789.65125 1531.16435 255.32995 -417.49203 
790.61699 1539.55735 253.96895 -418.95793 
793.71179 1548.28975 251.06825 -419.92475 
798.64799 1555.89435 248.72535 -420.77777 
796.70219 1567.11605 250.63325 -424.21827 
794.00329 1579.31445 251.30986 -432.76647 
795.15049 1582.91295 253.24856 -433.20053 
799.72119 1590.12235 249.96916 -434.69493 
800.59375 1599.41545 249.18486 -436.89273 
800.98934 1606.30205 250.24366 -437.56860 
803.57104 1616.05665 247.06876 -440.56430 
803.95084 1616.76645 247.82596 -441.00870 
807.44014 1623.45645 246.62176 -441.39621 
805.66204 1624.31105 253.75206 -441.36863 
807.75824 1626.78795 255.68996 -441.40960 
808.70556 1626.21682 262.88026 -442.08547 
811.53166 1635.61752 259.57686 -443.13637 
811.53879 1643.98362 260.08467 -446.95187 
812.50667 1651.17432 261.36447 -449.40837 
817.24987 1653.28292 261.50127 -447.75407 
821.13307 1659.68522 259.06927 -448.73770 
824.61067 1668.49622 255.88067 -449.66055 
825.74217 1676.41742 256.97367 -452.50495 
828.56587 1679.27712 257.17045 -451.93299 
830.49797 1685.31942 257.43064 -453.98599 
833.56117 1681.98792 262.56114 -453.15929 
831.72007 1692.81852 265.33014 -456.24939 
834.52847 1704.12302 261.99074 -460.66879 
837.09827 1699.71542 267.97634 -460.59078 
836.97203 1710.03702 264.26424 -466.70928 
840.34763 1705.94192 268.63124 -465.63948 
840.29962 1704.33822 277.10684 -464.88390 
841.18406 1710.92882 277.66521 -465.32572 
845.04846 1714.63492 278.36924 -464.97358 
847.05356 1707.77112 286.50124 -465.21368 
851.98296 1708.04839 286.70916 -464.87706 
854.81266 1714.39689 285.97370 -465.46371 
857.37766 1723.02989 282.97960 -466.77191 
859.47066 1731.33599 283.00244 -470.04431 
864.07206 1736.96239 280.87894 -469.85122 
869.13376 1736.60440 281.32592 -468.85254 
868.83866 1745.65330 280.79867 -470.93144 
872.41566 1748.05370 282.68947 -470.19913 
875.08046 1758.80770 279.29007 -474.36763 
881.01786 1764.97410 276.69957 -474.73316 
883.03316 1766.82200 279.83707 -474.30473 
880.63486 1779.42800 282.78347 -480.09353 
882.39686 1783.79620 284.92187 -479.33924 
885.86376 1790.66620 283.86507 -480.07071 
886.67732 1799.82280 281.71587 -484.25211 
887.20587 1800.78707 285.74017 -485.30041 
887.53698 1805.36017 287.79717 -485.49008 
888.81158 1814.17737 286.26487 -487.28578 
891.34438 1821.70537 285.84558 -489.93358 
894.96878 1823.16627 287.19568 -488.00518 
893.58028 1835.66887 287.88686 -495.55388 
899.30298 1841.50007 285.47716 -495.79915 
902.66128 1851.85677 281.74706 -499.49825 
905.18398 1854.09367 284.47066 -498.70387 
907.13158 1849.31987 292.99766 -500.57067 
909.89748 1849.98203 297.14706 -500.85473 
914.14498 1851.46363 296.66351 -499.90130 
918.12218 1851.79884 298.92011 -497.73880 
920.94538 1862.65014 295.77351 -501.71720 
925.19118 1863.84824 296.43984 -500.77024 
929.29498 1859.04134 299.78894 -501.26249 
930.74568 1867.83164 297.55654 -501.91508 
932.59898 1873.97744 298.57414 -503.95518 
936.12778 1874.69340 300.52484 -502.01768 
940.09968 1875.73010 301.28457 -501.01638 
943.63368 1885.09150 297.65297 -502.26248 
947.32308 1894.97850 293.57417 -506.62888 
950.39028 1890.56680 297.39797 -507.44570 
953.03658 1885.75160 303.75287 -507.44270 
957.07708 1886.26684 304.78077 -506.33670 
961.46168 1881.38744 308.14697 -506.36602 
963.47818 1881.13498 313.31767 -505.28972 
963.14089 1880.48522 320.98357 -504.56646 
960.68049 1893.21542 321.90095 -512.20826 
962.25059 1901.12832 322.19113 -514.40356 
964.89209 1908.71432 321.90551 -516.07126 
969.91349 1916.79072 318.85401 -517.78676 
974.25699 1920.12022 319.68999 -517.13721 
976.08079 1913.34542 328.07729 -517.67860 
980.01899 1914.27452 328.86272 -517.00190 
982.27069 1909.13232 333.15432 -518.25060 
987.77469 1919.49942 328.74132 -522.27170 
990.62679 1928.67042 325.09522 -523.47640 
993.23719 1936.67852 324.85930 -525.23720 
997.13339 1931.88812 328.25470 -525.77471 
999.30859 1931.07902 333.35690 -526.45446 
1004.01579 1939.37472 330.79640 -527.94496 
1002.04909 1951.17992 330.39168 -535.81686 
1006.10429 1951.58135 331.84798 -535.16343 
1008.47209 1944.74235 340.26868 -535.61172 
1008.80774 1951.57925 340.96586 -536.16863 
1013.14754 1946.27565 344.84616 -536.87295 
1014.69314 1954.82385 345.26486 -539.05135 
1016.12074 1963.20855 343.16536 -541.01905 
1015.84272 1971.39665 340.03156 -543.54665 
1016.77883 1980.03795 338.39646 -544.85095 
1021.41403 1977.02925 341.07376 -543.63895 
1022.94083 1971.44215 349.73016 -545.36095 
1023.89709 1973.91495 354.18796 -545.14459 
1021.10569 1975.68835 360.96356 -545.54374 
1026.30889 1979.19995 359.70976 -544.53084 
1026.96386 1984.38145 360.77706 -544.95197 
1032.57226 1994.68235 355.97676 -549.30537 
1033.67726 2002.12555 356.38775 -552.33857 
1034.83306 2008.52585 357.93835 -551.64247 
1037.61616 2019.50545 354.38135 -556.04637 
1041.37966 2022.28655 355.04254 -555.70458 
1038.73176 2032.42395 353.71154 -561.17528 
1039.79696 2040.79215 352.31114 -562.82618 
1038.36946 2052.67185 352.72727 -569.82398 
1044.11506 2062.85265 347.94157 -574.16058 
1049.20106 2066.13245 346.67147 -573.04168 
1052.61026 2071.53735 344.14867 -573.94126 
1052.37416 2080.85945 346.27937 -578.32056 
1056.19386 2089.85455 341.89637 -582.35326 
1055.05476 2091.66725 348.81077 -581.65199 
1059.97966 2092.35631 349.58421 -580.44249 
1059.77346 2101.57701 345.87981 -587.25279 
1063.71946 2108.42841 344.33551 -587.81099 
1063.44146 2116.61651 341.20171 -590.33859 
1065.30066 2119.82391 341.04205 -590.60067 
1065.87019 2127.45331 342.61745 -593.82397 
1069.26529 2128.60171 344.75755 -591.73777 
1074.30819 2128.07197 345.26194 -590.63177 
1078.08399 2135.25027 343.74244 -590.23049 
1082.74019 2142.89007 341.31814 -591.46889 
1084.57859 2148.95307 341.86537 -590.95641 
1086.59389 2149.38968 346.45177 -591.27151 
1090.11899 2150.10978 348.14457 -590.62713 
1093.87599 2144.68618 351.97007 -591.87973 
1096.47489 2148.20398 352.73237 -591.06854 
1100.90439 2145.85328 354.43717 -590.15908 
1107.72919 2151.07198 351.89467 -589.61298 
1109.62589 2148.55568 354.70397 -590.41040 
1111.77849 2142.38918 362.78707 -590.75395 
1114.49979 2149.43918 362.19899 -590.33586 
1118.38439 2146.40558 364.73239 -590.13372 
1122.55089 2145.96068 364.96687 -589.85529 
1123.49314 2151.81678 366.84307 -590.18073 
1128.62524 2151.78573 367.16923 -589.06563 
1131.65854 2149.19293 369.48753 -588.76263 
1135.43764 2151.76913 370.79733 -588.19713 
1136.21529 2157.74723 371.99143 -588.54973 
1136.42613 2167.18313 371.89689 -590.40873 
1139.78383 2162.87693 377.92099 -590.22599 
1143.29653 2165.78423 378.97889 -589.81825 
1145.95273 2176.48863 375.67039 -593.89495 
1145.67473 2184.67673 372.53659 -596.42255 
1146.71473 2177.74463 380.82539 -597.72165 
1148.90283 2180.48023 382.15319 -597.90485 
1153.17843 2177.82743 384.29069 -596.96048 
1156.15203 2186.62183 380.65479 -598.33588 
1157.98933 2192.75103 381.49506 -597.78331 
1159.21553 2193.64702 387.25186 -597.89927 
1159.16752 2193.08624 394.97336 -597.44627 
1163.53092 2193.54975 396.40146 -595.42607 
1167.01292 2189.38635 399.90226 -595.50454 
1167.53239 2186.12305 402.99176 -596.48946 
1165.69759 2197.15645 406.17806 -601.37826 
1167.07299 2206.03575 404.26446 -601.91577 
1166.90617 2211.93315 404.76285 -602.61621 
1167.15652 2221.25935 401.07555 -608.87051 
1169.62382 2222.65195 402.78805 -608.45630 
1170.40187 2229.29435 401.64555 -609.51360 
1174.73837 2225.71035 405.33395 -608.76448 
1172.66247 2236.53265 407.97785 -613.60148 
1176.73397 2244.17245 405.89545 -614.77128 
1176.19431 2251.49975 406.36128 -616.22558 
1178.81561 2257.29165 406.42697 -617.80148 
1181.83981 2253.95385 409.01347 -618.34933 
1187.69171 2259.34435 406.60977 -618.41098 
1188.26231 2259.31955 407.85187 -618.97308 
1189.81011 2268.50095 406.21927 -620.71058 
1190.55065 2268.86720 408.41847 -620.22655 
1191.04636 2279.09150 407.32147 -624.24245 
1194.65406 2285.94910 406.15927 -623.96014 
1197.89436 2282.24090 411.43967 -623.54723 
1201.81096 2292.49000 407.34707 -628.01313 
1207.40196 2302.95430 402.96317 -632.35103 
1211.15416 2299.25650 406.95747 -631.04593 
1212.46556 2303.80270 409.25097 -630.82052 
1216.16776 2310.79690 407.39987 -630.94941 
1220.53176 2307.69300 409.77557 -630.16409 
1224.11466 2309.13530 410.79747 -628.76329 
1229.28776 2313.09590 408.81447 -628.35555 
1231.01346 2308.62620 417.03637 -630.16285 
1235.80996 2315.61210 415.03967 -630.51286 
1239.90616 2325.80120 411.10737 -634.69556 
1242.46206 2329.16170 413.13947 -634.42747 
1245.95366 2337.73260 410.10687 -635.01929 
1248.93926 2344.99990 409.69787 -637.26239 
1254.14046 2345.32684 409.87752 -636.08269 
1253.68984 2343.95904 416.96332 -636.48572 
1254.43825 2351.23464 418.11372 -637.02452 
1258.05635 2347.48924 420.94102 -637.73660 
1258.09685 2356.01264 422.38712 -641.66720 
1255.44895 2366.15004 421.05612 -647.13790 
1254.48972 2366.24108 427.27652 -648.62070 
1257.35692 2376.24188 424.07162 -651.73020 
1258.37512 2385.35088 423.45098 -653.44310 
1255.66082 2396.80438 425.56018 -657.40600 
1259.48522 2393.69628 428.01388 -656.88576 
1262.28132 2395.81728 429.85238 -656.50259 
1265.81712 2402.52588 429.03381 -656.02373 
1265.11152 2411.24998 431.25531 -660.62023 
1269.26572 2418.52558 428.77871 -661.83013 
1270.19275 2427.95738 428.11608 -663.50293 
1267.74545 2440.58208 428.85181 -671.16413 
1268.40736 2450.24148 428.56362 -672.82793 
1273.19996 2451.94858 428.51192 -671.33533 
1278.18516 2460.30018 425.96942 -672.61763 
1282.83506 2467.93378 424.02672 -672.99221 
1282.81148 2475.10798 424.81129 -673.74955 
1283.69446 2475.76807 430.82089 -674.18232 
1287.73666 2471.37707 435.56749 -673.04532 
1289.99126 2479.47627 435.31872 -676.31512 
1290.37604 2486.07517 434.98512 -676.87978 
1293.53014 2480.90407 441.58422 -676.30523 
1295.92704 2481.13996 446.43192 -674.86823 
1300.63844 2483.21546 446.16172 -673.63033 
1303.29904 2486.38356 448.12362 -673.44371 
1307.23004 2488.23766 448.10019 -672.21231 
1307.24731 2496.93066 449.49909 -676.17911 
1310.48871 2497.34037 450.90059 -674.98391 
1310.48871 2497.34037 450.90059 -674.98391 
1310.48871 2497.34037 450.90059 -674.98391 
1310.48871 2497.34037 450.90059 -674.98391 
1310.48871 2497.34037 450.90059 -674.98391 
1310.48871 2497.34037 450.90059 -674.98391 
1310.48871 2497.34037 450.90059 -674.98391 
1310.48871 2497.34037 450.90059 -674.98391 
1310.48871 2497.34037 450.90059 -674.98391 
1310.48871 2497.34037 450.90059 -674.98391 
1310.48871 2497.34037 450.90059 -674.98391 
1310.48871 2497.34037 450.90059 -674.98391 
1310.48871 2497.34037 450.90059 -674.98391 
1310.48871 2497.34037 450.90059 -674.98391 
1310.48871 2497.34037 450.90059 -674.98391 
1310.48871 2497.34037 450.90059 -674.98391 
1310.48871 2497.34037 450.90059 -674.98391 
1310.48871 2497.34037 450.90059 -674.98391 
1310.48871 2497.34037 450.90059 -674.98391 
1310.48871 2497.34037 450.90059 -674.98391 
1310.48871 2497.34037 450.90059 -674.98391 
1310.48871 2497.34037 450.90059 -674.98391 
1310.48871 2497.34037 450.90059 -674.98391 
1310.48871 2497.34037 450.90059 -674.98391 
1310.48871 2497.34037 450.90059 -674.98391 
1310.48871 2497.34037 450.90059 -674.98391 
1310.48871 2497.34037 450.90059 -674.98391 
1310.48871 2497.34037 450.90059 -674.98391 
1310.48871 2497.34037 450.90059 -674.98391 
1310.48871 2497.34037 450.90059 -674.98391 
1310.48871 2497.34037 450.90059 -674.98391 
1310.48871 2497.34037 450.90059 -674.98391 
1310.48871 2497.34037 450.90059 -674.98391 
1310.48871 2497.34037 450.90059 -674.98391 
1310.48871 2497.34037 450.90059 -674.98391 
1310.48871 2497.34037 450.90059 -674.98391 
1310.48871 2497.34037 450.90059 -674.98391 
1310.48871 2497.34037 450.90059 -674.98391 
1310.48871 2497.34037 450.90059 -674.98391 
1310.48871 2497.34037 450.90059 -674.98391 
1310.48871 2497.34037 450.90059 -674.98391 
1310.48871 2497.34037 450.90059 -674.98391 
1310.48871 2497.34037 450.90059 -674.98391 
1310.48871 2497.34037 450.90059 -674.98391 
1310.48871 2497.34037 450.90059 -674.98391 
1310.48871 2497.34037 450.90059 -674.98391 
1310.48871 2497.34037 450.90059 -674.98391 
1310.48871 2497.34037 450.90059 -674.98391 
1310.48871 2497.34037 450.90059 -674.98391 
1310.48871 2497.34037 450.90059 -674.98391 
1310.48871 2497.34037 450.90059 -674.98391 
1310.48871 2497.34037 450.90059 -674.98391 
1310.48871 2497.34037 450.90059 -674.98391 
1310.48871 2497.34037 450.90059 -674.98391 
1310.48871 2497.34037 450.90059 -674.98391 
1310.48871 2497.34037 450.90059 -674.98391 
1310.48871 2497.34037 450.90059 -674.98391 
1310.48871 2497.34037 450.90059 -674.98391 
1310.48871 2497.34037 450.90059 -674.98391 
1310.48871 2497.34037 450.90059 -674.98391 
1310.48871 2497.34037 450.90059 -674.98391 
1310.48871 2497.34037 450.90059 -674.98391 
1310.48871 2497.34037 450.90059 -674.98391 
1310.48871 2497.34037 450.90059 -674.98391 
1310.48871 2497.34037 450.90059 -674.98391 
1310.48871 2497.34037 450.90059 -674.98391 
1310.48871 2497.34037 450.90059 -674.98391 
1310.48871 2497.34037 450.90059 -674.98391 
1310.48871 2497.34037 450.90059 -674.98391 
1310.48871 2497.34037 450.90059 -674.98391 
1310.48871 2497.34037 450.90059 -674.98391 
1310.48871 2497.34037 450.90059 -674.98391 
1310.48871 2497.34037 450.90059 -674.98391 
1310.48871 2497.34037 450.90059 -674.98391 
1310.48871 2497.34037 450.90059 -674.98391 
1310.48871 2497.34037 450.90059 -674.98391 
1310.48871 2497.34037 450.90059 -674.98391 
1310.48871 2497.34037 450.90059 -674.98391 
1310.48871 2497.34037 450.90059 -674.98391 
1310.48871 2497.34037 450.90059 -674.98391 
1310.48871 2497.34037 450.90059 -674.98391 
1310.48871 2497.34037 450.90059 -674.98391 
1310.48871 2497.34037 450.90059 -674.98391 
1310.48871 2497.34037 450.90059 -674.98391 
1310.48871 2497.34037 450.90059 -674.98391 
1310.48871 2497.34037 450.90059 -674.98391 
1310.48871 2497.34037 450.90059 -674.98391 
1310.48871 2497.34037 450.90059 -674.98391 
1310.48871 2497.34037 450.90059 -674.98391 
1310.48871 2497.34037 450.90059 -674.98391 
1310.48871 2497.34037 450.90059 -674.98391 
1310.48871 2497.34037 450.90059 -674.98391 
1310.48871 2497.34037 450.90059 -674.98391 
1310.48871 2497.34037 450.90059 -674.98391 
1310.48871 2497.34037 450.90059 -674.98391 
1310.48871 2497.34037 450.90059 -674.98391 
1310.48871 2497.34037 450.90059 -674.98391 
1310.48871 2497.34037 450.90059 -674.98391 
1310.48871 2497.34037 450.90059 -674.98391 
1310.48871 2497.34037 450.90059 -674.98391 
1310.48871 2497.34037 450.90059 -674.98391 
1310.48871 2497.34037 450.90059 -674.98391 
1310.48871 2497.34037 450.90059 -674.98391 
1310.48871 2497.34037 450.90059 -674.98391 
1310.48871 2497.34037 450.90059 -674.98391 
1310.48871 2497.34037 450.90059 -674.98391 
1310.48871 2497.34037 450.90059 -674.98391 
1310.48871 2497.34037 450.90059 -674.98391 
1310.48871 2497.34037 450.90059 -674.98391 
1310.48871 2497.34037 450.90059 -674.98391 
1310.48871 2497.34037 450.90059 -674.98391 
1310.48871 2497.34037 450.90059 -674.98391 
1310.48871 2497.34037 450.90059 -674.98391 
1310.48871 2497.34037 450.90059 -674.98391 
1310.48871 2497.34037 450.90059 -674.98391 
1310.48871 2497.34037 450.90059 -674.98391 
1310.48871 2497.34037 450.90059 -674.98391 
1310.48871 2497.34037 450.90059 -674.98391 
1310.48871 2497.34037 450.90059 -674.98391 
1310.48871 2497.34037 450.90059 -674.98391 
1310.48871 2497.34037 450.90059 -674.98391 
1310.48871 2497.34037 450.90059 -674.98391 
1310.48871 2497.34037 450.90059 -674.98391 
1310.48871 2497.34037 450.90059 -674.98391 
1310.48871 2497.34037 450.90059 -674.98391 
1310.48871 2497.34037 450.90059 -674.98391 
1310.48871 2497.34037 450.90059 -674.98391 
1310.48871 2497.34037 450.90059 -674.98391 
1310.48871 2497.34037 450.90059 -674.98391 
1310.48871 2497.34037 450.90059 -674.98391 
1310.48871 2497.34037 450.90059 -674.98391 
1310.48871 2497.34037 450.90059 -674.98391 
1310.48871 2497.34037 450.90059 -674.98391 
1310.48871 2497.34037 450.90059 -674.98391 
1310.48871 2497.34037 450.90059 -674.98391 
1310.48871 2497.34037 450.90059 -674.98391 
1310.48871 2497.34037 450.90059 -674.98391 
1310.48871 2497.34037 450.90059 -674.98391 
1310.48871 2497.34037 450.90059 -674.98391 
1310.48871 2497.34037 450.90059 -674.98391 
1310.48871 2497.34037 450.90059 -674.98391 
1310.48871 2497.34037 450.90059 -674.98391 
1310.48871 2497.34037 450.90059 -674.98391 
1310.48871 2497.34037 450.90059 -674.98391 
1310.48871 2497.34037 450.90059 -674.98391 
1310.48871 2497.34037 450.90059 -674.98391 
1310.48871 2497.34037 450.90059 -674.98391 
1310.48871 2497.34037 450.90059 -674.98391 
1310.48871 2497.34037 450.90059 -674.98391 
1310.48871 2497.34037 450.90059 -674.98391 
1310.48871 2497.34037 450.90059 -674.98391 
1310.48871 2497.34037 450.90059 -674.98391 
1310.48871 2497.34037 450.90059 -674.98391 
1310.48871 2497.34037 450.90059 -674.98391 
1310.48871 2497.34037 450.90059 -674.98391 
1310.48871 2497.34037 450.90059 -674.98391 
1310.48871 2497.34037 450.90059 -674.98391 
1310.48871 2497.34037 450.90059 -674.98391 
1310.48871 2497.34037 450.90059 -674.98391 
1310.48871 2497.34037 450.90059 -674.98391 
1310.48871 2497.34037 450.90059 -674.98391 
1310.48871 2497.34037 450.90059 -674.98391 
1310.48871 2497.34037 450.90059 -674.98391 
1310.48871 2497.34037 450.90059 -674.98391 
1310.48871 2497.34037 450.90059 -674.98391 
1310.48871 2497.34037 450.90059 -674.98391 
1310.48871 2497.34037 450.90059 -674.98391 
1310.48871 2497.34037 450.90059 -674.98391 
1310.48871 2497.34037 450.90059 -674.98391 
1310.48871 2497.34037 450.90059 -674.98391 
1310.48871 2497.34037 450.90059 -674.98391 
1310.48871 2497.34037 450.90059 -674.98391 
1310.48871 2497.34037 450.90059 -674.98391 
1310.48871 2497.34037 450.90059 -674.98391 
1310.48871 2497.34037 450.90059 -674.98391 
1310.48871 2497.34037 450.90059 -674.98391 
1310.48871 2497.34037 450.90059 -674.98391 
1310.48871 2497.34037 450.90059 -674.98391 
1310.48871 2497.34037 450.90059 -674.98391 
1310.48871 2497.34037 450.90059 -674.98391 
1310.48871 2497.34037 450.90059 -674.98391 
1310.48871 2497.34037 450.90059 -674.98391 
1310.48871 2497.34037 450.90059 -674.98391 
1310.48871 2497.34037 450.90059 -674.98391 
1310.48871 2497.34037 450.90059 -674.98391 
1310.48871 2497.34037 450.90059 -674.98391 
1310.48871 2497.34037 450.90059 -674.98391 
1310.48871 2497.34037 450.90059 -674.98391 
1310.48871 2497.34037 450.90059 -674.98391 
1310.48871 2497.34037 450.90059 -674.98391 
1310.48871 2497.34037 450.90059 -674.98391 
1310.48871 2497.34037 450.90059 -674.98391 
1310.48871 2497.34037 450.90059 -674.98391 
1310.48871 2497.34037 450.90059 -674.98391 
1310.48871 2497.34037 450.90059 -674.98391 
1310.48871 2497.34037 450.90059 -674.98391 
1310.48871 2497.34037 450.90059 -674.98391 
1310.48871 2497.34037 450.90059 -674.98391 
1310.48871 2497.34037 450.90059 -674.98391 
1310.48871 2497.34037 450.90059 -674.98391 
1310.48871 2497.34037 450.90059 -674.98391 
1310.48871 2497.34037 450.90059 -674.98391 
1310.48871 2497.34037 450.90059 -674.98391 
1310.48871 2497.34037 450.90059 -674.98391 
1310.48871 2497.34037 450.90059 -674.98391 
1310.48871 2497.34037 450.90059 -674.98391 
1310.48871 2497.34037 450.90059 -674.98391 
1310.48871 2497.34037 450.90059 -674.98391 
1310.48871 2497.34037 450.90059 -674.98391 
1310.48871 2497.34037 450.90059 -674.98391 
1310.48871 2497.34037 450.90059 -674.98391 
1310.48871 2497.34037 450.90059 -674.98391 
1310.48871 2497.34037 450.90059 -674.98391 
1310.48871 2497.34037 450.90059 -674.98391 
1310.48871 2497.34037 450.90059 -674.98391 
1310.48871 2497.34037 450.90059 -674.98391 
1310.48871 2497.34037 450.90059 -674.98391 
1310.48871 2497.34037 450.90059 -674.98391 
1310.48871 2497.34037 450.90059 -674.98391 
1310.48871 2497.34037 450.90059 -674.98391 
1310.48871 2497.34037 450.90059 -674.98391 
1310.48871 2497.34037 450.90059 -674.98391 
1310.48871 2497.34037 450.90059 -674.98391 
1310.48871 2497.34037 450.90059 -674.98391 
1310.48871 2497.34037 450.90059 -674.98391 
1310.48871 2497.34037 450.90059 -674.98391 
1310.48871 2497.34037 450.90059 -674.98391 
1310.48871 2497.34037 450.90059 -674.98391 
1310.48871 2497.34037 450.90059 -674.98391 
1310.48871 2497.34037 450.90059 -674.98391 
1310.48871 2497.34037 450.90059 -674.98391 
1310.48871 2497.34037 450.90059 -674.98391 
1310.48871 2497.34037 450.90059 -674.98391 
1310.48871 2497.34037 450.90059 -674.98391 
1310.48871 2497.34037 450.90059 -674.98391 
1310.48871 2497.34037 450.90059 -674.98391 
1310.48871 2497.34037 450.90059 -674.98391 
1310.48871 2497.34037 450.90059 -674.98391 
1310.48871 2497.34037 450.90059 -674.98391 
1310.48871 2497.34037 450.90059 -674.98391 
1310.48871 2497.34037 450.90059 -674.98391 
1310.48871 2497.34037 450.90059 -674.98391 
1310.48871 2497.34037 450.90059 -674.98391 
1310.48871 2497.34037 450.90059 -674.98391 
1310.48871 2497.34037 450.90059 -674.98391 
1310.48871 2497.34037 450.90059 -674.98391 
1310.48871 2497.34037 450.90059 -674.98391 
1310.48871 2497.34037 450.90059 -674.98391 
1310.48871 2497.34037 450.90059 -674.98391 
1310.48871 2497.34037 450.90059 -674.98391 
1310.48871 2497.34037 450.90059 -674.98391 
1310.48871 2497.34037 450.90059 -674.98391 
1310.48871 2497.34037 450.90059 -674.98391 
1310.48871 2497.34037 450.90059 -674.98391 
1310.48871 2497.34037 450.90059 -674.98391 
1310.48871 2497.34037 450.90059 -674.98391 
1310.48871 2497.34037 450.90059 -674.98391 
1310.48871 2497.34037 450.90059 -674.98391 
1310.48871 2497.34037 450.90059 -674.98391 
1310.48871 2497.34037 450.90059 -674.98391 
1310.48871 2497.34037 450.90059 -674.98391 
1310.48871 2497.34037 450.90059 -674.98391 
1310.48871 2497.34037 450.90059 -674.98391 
1310.48871 2497.34037 450.90059 -674.98391 
1310.48871 2497.34037 450.90059 -674.98391 
1310.48871 2497.34037 450.90059 -674.98391 
1310.48871 2497.34037 450.90059 -674.98391 
1310.48871 2497.34037 450.90059 -674.98391 
1310.48871 2497.34037 450.90059 -674.98391 
1310.48871 2497.34037 450.90059 -674.98391 
1310.48871 2497.34037 450.90059 -674.98391 
1310.48871 2497.34037 450.90059 -674.98391 
1310.48871 2497.34037 450.90059 -674.98391 
1310.48871 2497.34037 450.90059 -674.98391 
1310.48871 2497.34037 450.90059 -674.98391 
1310.48871 2497.34037 450.90059 -674.98391 
1310.48871 2497.34037 450.90059 -674.98391 
1310.48871 2497.34037 450.90059 -674.98391 
1310.48871 2497.34037 450.90059 -674.98391 
1310.48871 2497.34037 450.90059 -674.98391 
1310.48871 2497.34037 450.90059 -674.98391 
1310.48871 2497.34037 450.90059 -674.98391 
1310.48871 2497.34037 450.90059 -674.98391 
1310.48871 2497.34037 450.90059 -674.98391 
1310.48871 2497.34037 450.90059 -674.98391 
1310.48871 2497.34037 450.90059 -674.98391 
1310.48871 2497.34037 450.90059 -674.98391 
1310.48871 2497.34037 450.90059 -674.98391 
1310.48871 2497.34037 450.90059 -674.98391 
1310.48871 2497.34037 450.90059 -674.98391 
1310.48871 2497.34037 450.90059 -674.98391 
1310.48871 2497.34037 450.90059 -674.98391 
1310.48871 2497.34037 450.90059 -674.98391 
1310.48871 2497.34037 450.90059 -674.98391 
1310.48871 2497.34037 450.90059 -674.98391 
1310.48871 2497.34037 450.90059 -674.98391 
1310.48871 2497.34037 450.90059 -674.98391 
1310.48871 2497.34037 450.90059 -674.98391 
1310.48871 2497.34037 450.90059 -674.98391 
1310.48871 2497.34037 450.90059 -674.98391 
1310.48871 2497.34037 450.90059 -674.98391 
1310.48871 2497.34037 450.90059 -674.98391 
1310.48871 2497.34037 450.90059 -674.98391 
1310.48871 2497.34037 450.90059 -674.98391 
1310.48871 2497.34037 450.90059 -674.98391 
1310.48871 2497.34037 450.90059 -674.98391 
1310.48871 2497.34037 450.90059 -674.98391 
1310.48871 2497.34037 450.90059 -674.98391 
1310.48871 2497.34037 450.90059 -674.98391 
1310.48871 2497.34037 450.90059 -674.98391 
1310.48871 2497.34037 450.90059 -674.98391 
1310.48871 2497.34037 450.90059 -674.98391 
1310.48871 2497.34037 450.90059 -674.98391 
1310.48871 2497.34037 450.90059 -674.98391 
1310.48871 2497.34037 450.90059 -674.98391 
1310.48871 2497.34037 450.90059 -674.98391 
1310.48871 2497.34037 450.90059 -674.98391 
1310.48871 2497.34037 450.90059 -674.98391 
1310.48871 2497.34037 450.90059 -674.98391 
1310.48871 2497.34037 450.90059 -674.98391 
1310.48871 2497.34037 450.90059 -674.98391 
1310.48871 2497.34037 450.90059 -674.98391 
1310.48871 2497.34037 450.90059 -674.98391 
1310.48871 2497.34037 450.90059 -674.98391 
1310.48871 2497.34037 450.90059 -674.98391 
1310.48871 2497.34037 450.90059 -674.98391 
1310.48871 2497.34037 450.90059 -674.98391 
1310.48871 2497.34037 450.90059 -674.98391 
1310.48871 2497.34037 450.90059 -674.98391 
1310.48871 2497.34037 450.90059 -674.98391 
1310.48871 2497.34037 450.90059 -674.98391 
1310.48871 2497.34037 450.90059 -674.98391 
1310.48871 2497.34037 450.90059 -674.98391 
1310.48871 2497.34037 450.90059 -674.98391 
1310.48871 2497.34037 450.90059 -674.98391 
1310.48871 2497.34037 450.90059 -674.98391 
1310.48871 2497.34037 450.90059 -674.98391 
1310.48871 2497.34037 450.90059 -674.98391 
1310.48871 2497.34037 450.90059 -674.98391 
1310.48871 2497.34037 450.90059 -674.98391 
1310.48871 2497.34037 450.90059 -674.98391 
1310.48871 2497.34037 450.90059 -674.98391 
1310.48871 2497.34037 450.90059 -674.98391 
1310.48871 2497.34037 450.90059 -674.98391 
1310.48871 2497.34037 450.90059 -674.98391 
1310.48871 2497.34037 450.90059 -674.98391 
1310.48871 2497.34037 450.90059 -674.98391 
1310.48871 2497.34037 450.90059 -674.98391 
1310.48871 2497.34037 450.90059 -674.98391 
1310.48871 2497.34037 450.90059 -674.98391 
1310.48871 2497.34037 450.90059 -674.98391 
1310.48871 2497.34037 450.90059 -674.98391 
1310.48871 2497.34037 450.90059 -674.98391 
1310.48871 2497.34037 450.90059 -674.98391 
1310.48871 2497.34037 450.90059 -674.98391 
1310.48871 2497.34037 450.90059 -674.98391 
1310.48871 2497.34037 450.90059 -674.98391 
1310.48871 2497.34037 450.90059 -674.98391 
1310.48871 2497.34037 450.90059 -674.98391 
1310.48871 2497.34037 450.90059 -674.98391 
1310.48871 2497.34037 450.90059 -674.98391 
1310.48871 2497.34037 450.90059 -674.98391 
1310.48871 2497.34037 450.90059 -674.98391 
1310.48871 2497.34037 450.90059 -674.98391 
1310.48871 2497.34037 450.90059 -674.98391 
1310.48871 2497.34037 450.90059 -674.98391 
1310.48871 2497.34037 450.90059 -674.98391 
1310.48871 2497.34037 450.90059 -674.98391 
1310.48871 2497.34037 450.90059 -674.98391 
1310.48871 2497.34037 450.90059 -674.98391 
1310.48871 2497.34037 450.90059 -674.98391 
1310.48871 2497.34037 450.90059 -674.98391 
1310.48871 2497.34037 450.90059 -674.98391 
1310.48871 2497.34037 450.90059 -674.98391 
1310.48871 2497.34037 450.90059 -674.98391 
1310.48871 2497.34037 450.90059 -674.98391 
1310.48871 2497.34037 450.90059 -674.98391 
1310.48871 2497.34037 450.90059 -674.98391 
1310.48871 2497.34037 450.90059 -674.98391 
1310.48871 2497.34037 450.90059 -674.98391 
1310.48871 2497.34037 450.90059 -674.98391 
1310.48871 2497.34037 450.90059 -674.98391 
1310.48871 2497.34037 450.90059 -674.98391 
1310.48871 2497.34037 450.90059 -674.98391 
1310.48871 2497.34037 450.90059 -674.98391 
1310.48871 2497.34037 450.90059 -674.98391 
1310.48871 2497.34037 450.90059 -674.98391 
1310.48871 2497.34037 450.90059 -674.98391 
1310.48871 2497.34037 450.90059 -674.98391 
1310.48871 2497.34037 450.90059 -674.98391 
1310.48871 2497.34037 450.90059 -674.98391 
1310.48871 2497.34037 450.90059 -674.98391 
1310.48871 2497.34037 450.90059 -674.98391 
1310.48871 2497.34037 450.90059 -674.98391 
1310.48871 2497.34037 450.90059 -674.98391 
1310.48871 2497.34037 450.90059 -674.98391 
1310.48871 2497.34037 450.90059 -674.98391 
1310.48871 2497.34037 450.90059 -674.98391 
1310.48871 2497.34037 450.90059 -674.98391 
1310.48871 2497.34037 450.90059 -674.98391 
1310.48871 2497.34037 450.90059 -674.98391 
1310.48871 2497.34037 450.90059 -674.98391 
1310.48871 2497.34037 450.90059 -674.98391 
1310.48871 2497.34037 450.90059 -674.98391 
1310.48871 2497.34037 450.90059 -674.98391 
1310.48871 2497.34037 450.90059 -674.98391 
1310.48871 2497.34037 450.90059 -674.98391 
1310.48871 2497.34037 450.90059 -674.98391 
1310.48871 2497.34037 450.90059 -674.98391 
1310.48871 2497.34037 450.90059 -674.98391 
1310.48871 2497.34037 450.90059 -674.98391 
1310.48871 2497.34037 450.90059 -674.98391 
1310.48871 2497.34037 450.90059 -674.98391 
1310.48871 2497.34037 450.90059 -674.98391 
1310.48871 2497.34037 450.90059 -674.98391 
1310.48871 2497.34037 450.90059 -674.98391 
1310.48871 2497.34037 450.90059 -674.98391 
1310.48871 2497.34037 450.90059 -674.98391 
1310.48871 2497.34037 450.90059 -674.98391 
1310.48871 2497.34037 450.90059 -674.98391 
1310.48871 2497.34037 450.90059 -674.98391 
1310.48871 2497.34037 450.90059 -674.98391 
1310.48871 2497.34037 450.90059 -674.98391 
1310.48871 2497.34037 450.90059 -674.98391 
1310.48871 2497.34037 450.90059 -674.98391 
1310.48871 2497.34037 450.90059 -674.98391 
1310.48871 2497.34037 450.90059 -674.98391 
1310.48871 2497.34037 450.90059 -674.98391 
1310.48871 2497.34037 450.90059 -674.98391 
1310.48871 2497.34037 450.90059 -674.98391 
1310.48871 2497.34037 450.90059 -674.98391 
1310.48871 2497.34037 450.90059 -674.98391 
1310.48871 2497.34037 450.90059 -674.98391 
1310.48871 2497.34037 450.90059 -674.98391 
1310.48871 2497.34037 450.90059 -674.98391 
1310.48871 2497.34037 450.90059 -674.98391 
1310.48871 2497.34037 450.90059 -674.98391 
1310.48871 2497.34037 450.90059 -674.98391 
1310.48871 2497.34037 450.90059 -674.98391 
1310.48871 2497.34037 450.90059 -674.98391 
1310.48871 2497.34037 450.90059 -674.98391 
1310.48871 2497.34037 450.90059 -674.98391 
1310.48871 2497.34037 450.90059 -674.98391 
1310.48871 2497.34037 450.90059 -674.98391 
1310.48871 2497.34037 450.90059 -674.98391 
1310.48871 2497.34037 450.90059 -674.98391 
1310.48871 2497.34037 450.90059 -674.98391 
1310.48871 2497.34037 450.90059 -674.98391 
1310.48871 2497.34037 450.90059 -674.98391 
1310.48871 2497.34037 450.90059 -674.98391 
1310.48871 2497.34037 450.90059 -674.98391 
1310.48871 2497.34037 450.90059 -674.98391 
1310.48871 2497.34037 450.90059 -674.98391 
1310.48871 2497.34037 450.90059 -674.98391 
1310.48871 2497.34037 450.90059 -674.98391 
1310.48871 2497.34037 450.90059 -674.98391 
1310.48871 2497.34037 450.90059 -674.98391 
1310.48871 2497.34037 450.90059 -674.98391 
1310.48871 2497.34037 450.90059 -674.98391 
1310.48871 2497.34037 450.90059 -674.98391 
1310.48871 2497.34037 450.90059 -674.98391 
1310.48871 2497.34037 450.90059 -674.98391 
1310.48871 2497.34037 450.90059 -674.98391 
1310.48871 2497.34037 450.90059 -674.98391 
1310.48871 2497.34037 450.90059 -674.98391 
1310.48871 2497.34037 450.90059 -674.98391 
1310.48871 2497.34037 450.90059 -674.98391 
1310.48871 2497.34037 450.90059 -674.98391 
1310.48871 2497.34037 450.90059 -674.98391 
